<?xml version="1.0"?>
<opencv_storage>
<cascade>
  <stageType>BOOST</stageType>
  <featureType>HAAR</featureType>
  <height>24</height>
  <width>24</width>
  <stageParams>
    <boostType>GAB</boostType>
    <minHitRate>0.995000</minHitRate>
    <maxFalseAlarmRate>0.500000</maxFalseAlarmRate>
    <weightTrimRate>0.950000</weightTrimRate>
    <maxDepth>1</maxDepth>
    <maxWeakCount>100</maxWeakCount>
  </stageParams>
  <featureParams>
    <maxCatCount>0</maxCatCount>
    <featSize>1</featSize>
    <mode>BASIC</mode>
  </featureParams>
  <stageNum>25</stageNum>
  <stages>
    <_>
      <maxWeakCount>9</maxWeakCount>
      <stageThreshold>-1.0429</stageThreshold>
      <weakClassifiers>
        <_>
          <internalNodes>0 -1 13 2.4e-005 -2.9814451336860657e-002 2.9814451336860657e-002</internalNodes>
          <leafValues>-0.6521739363670349 0.4761904776096344</leafValues>
        </_>
        <_>
          <internalNodes>0 -1 15 1.6100000143051147e-003 -2.9814451336860657e-002 2.9814451336860657e-002</internalNodes>
          <leafValues>-0.6521739363670349 0.4761904776096344</leafValues>
        </_>
        <_>
          <internalNodes>0 -1 16 2.1999999880790710e-003 -2.9814451336860657e-002 2.9814451336860657e-002</internalNodes>
          <leafValues>-0.6521739363670349 0.4761904776096344</leafValues>
        </_>
        <_>
          <internalNodes>0 -1 17 2.7999999523162842e-003 -2.9814451336860657e-002 2.9814451336860657e-002</internalNodes>
          <leafValues>-0.6521739363670349 0.4761904776096344</leafValues>
        </_>
        <_>
          <internalNodes>0 -1 18 3.4000000953674316e-003 -2.9814451336860657e-002 2.9814451336860657e-002</internalNodes>
          <leafValues>-0.6521739363670349 0.4761904776096344</leafValues>
        </_>
        <_>
          <internalNodes>0 -1 19 4.0000001899898052e-003 -2.9814451336860657e-002 2.9814451336860657e-002</internalNodes>
          <leafValues>-0.6521739363670349 0.4761904776096344</leafValues>
        </_>
        <_>
          <internalNodes>0 -1 20 4.6000000834465027e-003 -2.9814451336860657e-002 2.9814451336860657e-002</internalNodes>
          <leafValues>-0.6521739363670349 0.4761904776096344</leafValues>
        </_>
        <_>
          <internalNodes>0 -1 21 5.2000001774132252e-003 -2.9814451336860657e-002 2.9814451336860657e-002</internalNodes>
          <leafValues>-0.6521739363670349 0.4761904776096344</leafValues>
        </_>
        <_>
          <internalNodes>0 -1 22 5.8000000864267349e-003 -2.9814451336860657e-002 2.9814451336860657e-002</internalNodes>
          <leafValues>-0.6521739363670349 0.4761904776096344</leafValues>
        </_>
      </weakClassifiers>
    </_>
    <_>
      <maxWeakCount>11</maxWeakCount>
      <stageThreshold>-1.0429</stageThreshold>
      <weakClassifiers>
        <_>
          <internalNodes>0 -1 13 2.4e-005 -2.9814451336860657e-002 2.9814451336860657e-002</internalNodes>
          <leafValues>-0.6521739363670349 0.4761904776096344</leafValues>
        </_>
        <_>
          <internalNodes>0 -1 15 1.6100000143051147e-003 -2.9814451336860657e-002 2.9814451336860657e-002</internalNodes>
          <leafValues>-0.6521739363670349 0.4761904776096344</leafValues>
        </_>
        <_>
          <internalNodes>0 -1 16 2.1999999880790710e-003 -2.9814451336860657e-002 2.9814451336860657e-002</internalNodes>
          <leafValues>-0.6521739363670349 0.4761904776096344</leafValues>
        </_>
        <_>
          <internalNodes>0 -1 17 2.7999999523162842e-003 -2.9814451336860657e-002 2.9814451336860657e-002</internalNodes>
          <leafValues>-0.6521739363670349 0.4761904776096344</leafValues>
        </_>
        <_>
          <internalNodes>0 -1 18 3.4000000953674316e-003 -2.9814451336860657e-002 2.9814451336860657e-002</internalNodes>
          <leafValues>-0.6521739363670349 0.4761904776096344</leafValues>
        </_>
        <_>
          <internalNodes>0 -1 19 4.0000001899898052e-003 -2.9814451336860657e-002 2.9814451336860657e-002</internalNodes>
          <leafValues>-0.6521739363670349 0.4761904776096344</leafValues>
        </_>
        <_>
          <internalNodes>0 -1 20 4.6000000834465027e-003 -2.9814451336860657e-002 2.9814451336860657e-002</internalNodes>
          <leafValues>-0.6521739363670349 0.4761904776096344</leafValues>
        </_>
        <_>
          <internalNodes>0 -1 21 5.2000001774132252e-003 -2.9814451336860657e-002 2.9814451336860657e-002</internalNodes>
          <leafValues>-0.6521739363670349 0.4761904776096344</leafValues>
        </_>
        <_>
          <internalNodes>0 -1 22 5.8000000864267349e-003 -2.9814451336860657e-002 2.9814451336860657e-002</internalNodes>
          <leafValues>-0.6521739363670349 0.4761904776096344</leafValues>
        </_>
        <_>
          <internalNodes>0 -1 23 6.4000000725388527e-003 -2.9814451336860657e-002 2.9814451336860657e-002</internalNodes>
          <leafValues>-0.6521739363670349 0.4761904776096344</leafValues>
        </_>
        <_>
          <internalNodes>0 -1 24 7.0000000664873123e-003 -2.9814451336860657e-002 2.9814451336860657e-002</internalNodes>
          <leafValues>-0.6521739363670349 0.4761904776096344</leafValues>
        </_>
      </weakClassifiers>
    </_>
  </stages>
  <features>
    <_>
      <rects>
        <_>
          <x>0</x>
          <y>0</y>
          <width>24</width>
          <height>24</height>
          <weight>-1.</weight>
        </_>
        <_>
          <x>0</x>
          <y>0</y>
          <width>12</width>
          <height>12</height>
          <weight>2.</weight>
        </_>
        <_>
          <x>12</x>
          <y>0</y>
          <width>12</width>
          <height>12</height>
          <weight>-1.</weight>
        </_>
      </rects>
    </_>
  </features>
  <stageNum>25</stageNum>
  <stages>
    <_>
      <maxWeakCount>9</maxWeakCount>
      <stageThreshold>-1.0429</stageThreshold>
      <weakClassifiers>
        <_>
          <internalNodes>0 -1 13 2.4e-005 -2.9814451336860657e-002 2.9814451336860657e-002</internalNodes>
          <leafValues>-0.6521739363670349 0.4761904776096344</leafValues>
        </_>
        <_>
          <internalNodes>0 -1 15 1.6100000143051147e-003 -2.9814451336860657e-002 2.9814451336860657e-002</internalNodes>
          <leafValues>-0.6521739363670349 0.4761904776096344</leafValues>
        </_>
        <_>
          <internalNodes>0 -1 16 2.1999999880790710e-003 -2.9814451336860657e-002 2.9814451336860657e-002</internalNodes>
          <leafValues>-0.6521739363670349 0.4761904776096344</leafValues>
        </_>
        <_>
          <internalNodes>0 -1 17 2.7999999523162842e-003 -2.9814451336860657e-002 2.9814451336860657e-002</internalNodes>
          <leafValues>-0.6521739363670349 0.4761904776096344</leafValues>
        </_>
        <_>
          <internalNodes>0 -1 18 3.4000000953674316e-003 -2.9814451336860657e-002 2.9814451336860657e-002</internalNodes>
          <leafValues>-0.6521739363670349 0.4761904776096344</leafValues>
        </_>
        <_>
          <internalNodes>0 -1 19 4.0000001899898052e-003 -2.9814451336860657e-002 2.9814451336860657e-002</internalNodes>
          <leafValues>-0.6521739363670349 0.4761904776096344</leafValues>
        </_>
        <_>
          <internalNodes>0 -1 20 4.6000000834465027e-003 -2.9814451336860657e-002 2.9814451336860657e-002</internalNodes>
          <leafValues>-0.6521739363670349 0.4761904776096344</leafValues>
        </_>
        <_>
          <internalNodes>0 -1 21 5.2000001774132252e-003 -2.9814451336860657e-002 2.9814451336860657e-002</internalNodes>
          <leafValues>-0.6521739363670349 0.4761904776096344</leafValues>
        </_>
        <_>
          <internalNodes>0 -1 22 5.8000000864267349e-003 -2.9814451336860657e-002 2.9814451336860657e-002</internalNodes>
          <leafValues>-0.6521739363670349 0.4761904776096344</leafValues>
        </_>
      </weakClassifiers>
    </_>
  </stages>
</cascade>
</opencv_storage> 